digraph Tree {
node [shape=box, fontname="helvetica"] ;
edge [fontname="helvetica"] ;
0 [label="ShelveLoc <= 1.5\ngini = 0.484\nsamples = 400\nvalue = [236, 164]"] ;
1 [label="Price <= 92.5\ngini = 0.429\nsamples = 315\nvalue = [217, 98]"] ;
0 -> 1 [labeldistance=2.5, labelangle=45, headlabel="True"] ;
2 [label="Income <= 57.0\ngini = 0.423\nsamples = 46\nvalue = [14, 32]"] ;
1 -> 2 ;
3 [label="CompPrice <= 110.5\ngini = 0.42\nsamples = 10\nvalue = [7, 3]"] ;
2 -> 3 ;
4 [label="gini = 0.0\nsamples = 5\nvalue = [5, 0]"] ;
3 -> 4 ;
5 [label="gini = 0.48\nsamples = 5\nvalue = [2, 3]"] ;
3 -> 5 ;
6 [label="Population <= 207.5\ngini = 0.313\nsamples = 36\nvalue = [7, 29]"] ;
2 -> 6 ;
7 [label="Age <= 56.5\ngini = 0.469\nsamples = 16\nvalue = [6, 10]"] ;
6 -> 7 ;
8 [label="gini = 0.219\nsamples = 8\nvalue = [1, 7]"] ;
7 -> 8 ;
9 [label="gini = 0.469\nsamples = 8\nvalue = [5, 3]"] ;
7 -> 9 ;
10 [label="CompPrice <= 100.0\ngini = 0.095\nsamples = 20\nvalue = [1, 19]"] ;
6 -> 10 ;
11 [label="gini = 0.32\nsamples = 5\nvalue = [1, 4]"] ;
10 -> 11 ;
12 [label="gini = 0.0\nsamples = 15\nvalue = [0, 15]"] ;
10 -> 12 ;
13 [label="Advertising <= 13.5\ngini = 0.37\nsamples = 269\nvalue = [203, 66]"] ;
1 -> 13 ;
14 [label="CompPrice <= 124.5\ngini = 0.299\nsamples = 224\nvalue = [183, 41]"] ;
13 -> 14 ;
15 [label="Price <= 106.5\ngini = 0.117\nsamples = 96\nvalue = [90, 6]"] ;
14 -> 15 ;
16 [label="Population <= 177.0\ngini = 0.266\nsamples = 38\nvalue = [32, 6]"] ;
15 -> 16 ;
17 [label="Income <= 60.5\ngini = 0.486\nsamples = 12\nvalue = [7, 5]"] ;
16 -> 17 ;
18 [label="gini = 0.0\nsamples = 6\nvalue = [6, 0]"] ;
17 -> 18 ;
19 [label="gini = 0.278\nsamples = 6\nvalue = [1, 5]"] ;
17 -> 19 ;
20 [label="Income <= 95.5\ngini = 0.074\nsamples = 26\nvalue = [25, 1]"] ;
16 -> 20 ;
21 [label="gini = 0.0\nsamples = 21\nvalue = [21, 0]"] ;
20 -> 21 ;
22 [label="gini = 0.32\nsamples = 5\nvalue = [4, 1]"] ;
20 -> 22 ;
23 [label="gini = 0.0\nsamples = 58\nvalue = [58, 0]"] ;
15 -> 23 ;
24 [label="Price <= 109.5\ngini = 0.397\nsamples = 128\nvalue = [93, 35]"] ;
14 -> 24 ;
25 [label="ShelveLoc <= 0.5\ngini = 0.408\nsamples = 21\nvalue = [6, 15]"] ;
24 -> 25 ;
26 [label="gini = 0.0\nsamples = 5\nvalue = [5, 0]"] ;
25 -> 26 ;
27 [label="Age <= 58.0\ngini = 0.117\nsamples = 16\nvalue = [1, 15]"] ;
25 -> 27 ;
28 [label="gini = 0.0\nsamples = 11\nvalue = [0, 11]"] ;
27 -> 28 ;
29 [label="gini = 0.32\nsamples = 5\nvalue = [1, 4]"] ;
27 -> 29 ;
30 [label="Price <= 126.5\ngini = 0.304\nsamples = 107\nvalue = [87, 20]"] ;
24 -> 30 ;
31 [label="Age <= 49.5\ngini = 0.444\nsamples = 42\nvalue = [28, 14]"] ;
30 -> 31 ;
32 [label="CompPrice <= 137.0\ngini = 0.48\nsamples = 20\nvalue = [8, 12]"] ;
31 -> 32 ;
33 [label="Population <= 203.5\ngini = 0.49\nsamples = 14\nvalue = [8, 6]"] ;
32 -> 33 ;
34 [label="gini = 0.469\nsamples = 8\nvalue = [3, 5]"] ;
33 -> 34 ;
35 [label="gini = 0.278\nsamples = 6\nvalue = [5, 1]"] ;
33 -> 35 ;
36 [label="gini = 0.0\nsamples = 6\nvalue = [0, 6]"] ;
32 -> 36 ;
37 [label="Population <= 171.5\ngini = 0.165\nsamples = 22\nvalue = [20, 2]"] ;
31 -> 37 ;
38 [label="gini = 0.0\nsamples = 11\nvalue = [11, 0]"] ;
37 -> 38 ;
39 [label="Population <= 379.0\ngini = 0.298\nsamples = 11\nvalue = [9, 2]"] ;
37 -> 39 ;
40 [label="gini = 0.444\nsamples = 6\nvalue = [4, 2]"] ;
39 -> 40 ;
41 [label="gini = 0.0\nsamples = 5\nvalue = [5, 0]"] ;
39 -> 41 ;
42 [label="CompPrice <= 147.5\ngini = 0.168\nsamples = 65\nvalue = [59, 6]"] ;
30 -> 42 ;
43 [label="Price <= 129.5\ngini = 0.039\nsamples = 50\nvalue = [49, 1]"] ;
42 -> 43 ;
44 [label="gini = 0.219\nsamples = 8\nvalue = [7, 1]"] ;
43 -> 44 ;
45 [label="gini = 0.0\nsamples = 42\nvalue = [42, 0]"] ;
43 -> 45 ;
46 [label="Price <= 147.0\ngini = 0.444\nsamples = 15\nvalue = [10, 5]"] ;
42 -> 46 ;
47 [label="gini = 0.469\nsamples = 8\nvalue = [3, 5]"] ;
46 -> 47 ;
48 [label="gini = 0.0\nsamples = 7\nvalue = [7, 0]"] ;
46 -> 48 ;
49 [label="Age <= 54.5\ngini = 0.494\nsamples = 45\nvalue = [20, 25]"] ;
13 -> 49 ;
50 [label="CompPrice <= 130.5\ngini = 0.32\nsamples = 25\nvalue = [5, 20]"] ;
49 -> 50 ;
51 [label="Income <= 100.0\ngini = 0.459\nsamples = 14\nvalue = [5, 9]"] ;
50 -> 51 ;
52 [label="gini = 0.494\nsamples = 9\nvalue = [5, 4]"] ;
51 -> 52 ;
53 [label="gini = 0.0\nsamples = 5\nvalue = [0, 5]"] ;
51 -> 53 ;
54 [label="gini = 0.0\nsamples = 11\nvalue = [0, 11]"] ;
50 -> 54 ;
55 [label="CompPrice <= 122.5\ngini = 0.375\nsamples = 20\nvalue = [15, 5]"] ;
49 -> 55 ;
56 [label="gini = 0.0\nsamples = 10\nvalue = [10, 0]"] ;
55 -> 56 ;
57 [label="Price <= 125.0\ngini = 0.5\nsamples = 10\nvalue = [5, 5]"] ;
55 -> 57 ;
58 [label="gini = 0.0\nsamples = 5\nvalue = [0, 5]"] ;
57 -> 58 ;
59 [label="gini = 0.0\nsamples = 5\nvalue = [5, 0]"] ;
57 -> 59 ;
60 [label="Price <= 142.5\ngini = 0.347\nsamples = 85\nvalue = [19, 66]"] ;
0 -> 60 [labeldistance=2.5, labelangle=-45, headlabel="False"] ;
61 [label="Income <= 34.5\ngini = 0.236\nsamples = 73\nvalue = [10, 63]"] ;
60 -> 61 ;
62 [label="Price <= 109.5\ngini = 0.497\nsamples = 13\nvalue = [6, 7]"] ;
61 -> 62 ;
63 [label="gini = 0.0\nsamples = 6\nvalue = [0, 6]"] ;
62 -> 63 ;
64 [label="gini = 0.245\nsamples = 7\nvalue = [6, 1]"] ;
62 -> 64 ;
65 [label="US <= 0.5\ngini = 0.124\nsamples = 60\nvalue = [4, 56]"] ;
61 -> 65 ;
66 [label="Price <= 110.0\ngini = 0.397\nsamples = 11\nvalue = [3, 8]"] ;
65 -> 66 ;
67 [label="gini = 0.0\nsamples = 5\nvalue = [0, 5]"] ;
66 -> 67 ;
68 [label="gini = 0.5\nsamples = 6\nvalue = [3, 3]"] ;
66 -> 68 ;
69 [label="Income <= 98.5\ngini = 0.04\nsamples = 49\nvalue = [1, 48]"] ;
65 -> 69 ;
70 [label="gini = 0.0\nsamples = 40\nvalue = [0, 40]"] ;
69 -> 70 ;
71 [label="gini = 0.198\nsamples = 9\nvalue = [1, 8]"] ;
69 -> 71 ;
72 [label="Income <= 80.5\ngini = 0.375\nsamples = 12\nvalue = [9, 3]"] ;
60 -> 72 ;
73 [label="gini = 0.0\nsamples = 5\nvalue = [5, 0]"] ;
72 -> 73 ;
74 [label="gini = 0.49\nsamples = 7\nvalue = [4, 3]"] ;
72 -> 74 ;
}